digraph Tree {
node [shape=box, style="rounded", color="black", fontname="helvetica"] ;
edge [fontname="helvetica"] ;
0 [label="Age <= 28.5\ngini = 0.5\nsamples = 383\nvalue = [377, 237]"] ;
1 [label="Pregnancies <= 0.5\ngini = 0.3\nsamples = 180\nvalue = [236, 50]"] ;
0 -> 1 [labeldistance=2.5, labelangle=45, headlabel="True"] ;
2 [label="Glucose <= 128.0\ngini = 0.5\nsamples = 43\nvalue = [43, 26]"] ;
1 -> 2 ;
3 [label="gini = 0.3\nsamples = 25\nvalue = [36, 7]"] ;
2 -> 3 ;
4 [label="gini = 0.4\nsamples = 18\nvalue = [7, 19]"] ;
2 -> 4 ;
5 [label="Glucose <= 154.5\ngini = 0.2\nsamples = 137\nvalue = [193, 24]"] ;
1 -> 5 ;
6 [label="gini = 0.1\nsamples = 130\nvalue = [193, 17]"] ;
5 -> 6 ;
7 [label="gini = 0.0\nsamples = 7\nvalue = [0, 7]"] ;
5 -> 7 ;
8 [label="BMI <= 26.3\ngini = 0.5\nsamples = 203\nvalue = [141, 187]"] ;
0 -> 8 [labeldistance=2.5, labelangle=-45, headlabel="False"] ;
9 [label="DiabetesPedigreeFunction <= 0.3\ngini = 0.2\nsamples = 25\nvalue = [31, 4]"] ;
8 -> 9 ;
10 [label="gini = 0.4\nsamples = 12\nvalue = [13, 4]"] ;
9 -> 10 ;
11 [label="gini = 0.0\nsamples = 13\nvalue = [18, 0]"] ;
9 -> 11 ;
12 [label="Pregnancies <= 1.5\ngini = 0.5\nsamples = 178\nvalue = [110, 183]"] ;
8 -> 12 ;
13 [label="gini = 0.2\nsamples = 29\nvalue = [6, 37]"] ;
12 -> 13 ;
14 [label="gini = 0.5\nsamples = 149\nvalue = [104, 146]"] ;
12 -> 14 ;
}